digraph Tree {
node [shape=box, style="filled, rounded", color="black", fontname=helvetica] ;
edge [fontname=helvetica] ;
0 [label="dy <= -58.392\ngini = 0.5\nsamples = 1124\nvalue = [894, 893]", fillcolor="#e5813900"] ;
1 [label="y <= 80.761\ngini = 0.183\nsamples = 183\nvalue = [29, 255]", fillcolor="#399de5e2"] ;
0 -> 1 [labeldistance=2.5, labelangle=45, headlabel="True"] ;
2 [label="xavg <= 234.97\ngini = 0.065\nsamples = 129\nvalue = [7, 202]", fillcolor="#399de5f6"] ;
1 -> 2 ;
3 [label="dy <= -114.654\ngini = 0.096\nsamples = 89\nvalue = [7, 132]", fillcolor="#399de5f1"] ;
2 -> 3 ;
4 [label="x <= 230.546\ngini = 0.019\nsamples = 64\nvalue = [1, 103]", fillcolor="#399de5fd"] ;
3 -> 4 ;
5 [label="gini = 0.0\nsamples = 54\nvalue = [0, 88]", fillcolor="#399de5ff"] ;
4 -> 5 ;
6 [label="gini = 0.117\nsamples = 10\nvalue = [1, 15]", fillcolor="#399de5ee"] ;
4 -> 6 ;
7 [label="dz <= -48.86\ngini = 0.284\nsamples = 25\nvalue = [6, 29]", fillcolor="#399de5ca"] ;
3 -> 7 ;
8 [label="gini = 0.0\nsamples = 8\nvalue = [0, 13]", fillcolor="#399de5ff"] ;
7 -> 8 ;
9 [label="yavg <= 9.678\ngini = 0.397\nsamples = 17\nvalue = [6, 16]", fillcolor="#399de59f"] ;
7 -> 9 ;
10 [label="gini = 0.198\nsamples = 8\nvalue = [1, 8]", fillcolor="#399de5df"] ;
9 -> 10 ;
11 [label="gini = 0.473\nsamples = 9\nvalue = [5, 8]", fillcolor="#399de560"] ;
9 -> 11 ;
12 [label="gini = 0.0\nsamples = 40\nvalue = [0, 70]", fillcolor="#399de5ff"] ;
2 -> 12 ;
13 [label="dx <= 72.151\ngini = 0.415\nsamples = 54\nvalue = [22, 53]", fillcolor="#399de595"] ;
1 -> 13 ;
14 [label="z <= 141.179\ngini = 0.482\nsamples = 37\nvalue = [21, 31]", fillcolor="#399de552"] ;
13 -> 14 ;
15 [label="dy <= -137.141\ngini = 0.493\nsamples = 26\nvalue = [19, 15]", fillcolor="#e5813936"] ;
14 -> 15 ;
16 [label="gini = 0.0\nsamples = 8\nvalue = [0, 9]", fillcolor="#399de5ff"] ;
15 -> 16 ;
17 [label="zavg <= 74.128\ngini = 0.365\nsamples = 18\nvalue = [19, 6]", fillcolor="#e58139ae"] ;
15 -> 17 ;
18 [label="gini = 0.497\nsamples = 10\nvalue = [7, 6]", fillcolor="#e5813924"] ;
17 -> 18 ;
19 [label="gini = 0.0\nsamples = 8\nvalue = [12, 0]", fillcolor="#e58139ff"] ;
17 -> 19 ;
20 [label="gini = 0.198\nsamples = 11\nvalue = [2, 16]", fillcolor="#399de5df"] ;
14 -> 20 ;
21 [label="x <= 342.552\ngini = 0.083\nsamples = 17\nvalue = [1, 22]", fillcolor="#399de5f3"] ;
13 -> 21 ;
22 [label="gini = 0.18\nsamples = 8\nvalue = [1, 9]", fillcolor="#399de5e3"] ;
21 -> 22 ;
23 [label="gini = 0.0\nsamples = 9\nvalue = [0, 13]", fillcolor="#399de5ff"] ;
21 -> 23 ;
24 [label="dz <= 45.275\ngini = 0.489\nsamples = 941\nvalue = [865, 638]", fillcolor="#e5813943"] ;
0 -> 24 [labeldistance=2.5, labelangle=-45, headlabel="False"] ;
25 [label="zavg <= 205.68\ngini = 0.459\nsamples = 806\nvalue = [828, 458]", fillcolor="#e5813972"] ;
24 -> 25 ;
26 [label="z <= 51.926\ngini = 0.42\nsamples = 696\nvalue = [771, 331]", fillcolor="#e5813992"] ;
25 -> 26 ;
27 [label="dy <= 32.309\ngini = 0.495\nsamples = 245\nvalue = [175, 215]", fillcolor="#399de52f"] ;
26 -> 27 ;
28 [label="z <= -33.32\ngini = 0.493\nsamples = 186\nvalue = [166, 130]", fillcolor="#e5813937"] ;
27 -> 28 ;
29 [label="gini = 0.105\nsamples = 22\nvalue = [2, 34]", fillcolor="#399de5f0"] ;
28 -> 29 ;
30 [label="gini = 0.466\nsamples = 164\nvalue = [164, 96]", fillcolor="#e581396a"] ;
28 -> 30 ;
31 [label="zavg <= 20.303\ngini = 0.173\nsamples = 59\nvalue = [9, 85]", fillcolor="#399de5e4"] ;
27 -> 31 ;
32 [label="gini = 0.0\nsamples = 34\nvalue = [0, 54]", fillcolor="#399de5ff"] ;
31 -> 32 ;
33 [label="gini = 0.349\nsamples = 25\nvalue = [9, 31]", fillcolor="#399de5b5"] ;
31 -> 33 ;
34 [label="xavg <= -101.167\ngini = 0.273\nsamples = 451\nvalue = [596, 116]", fillcolor="#e58139cd"] ;
26 -> 34 ;
35 [label="zavg <= 164.062\ngini = 0.5\nsamples = 58\nvalue = [42, 44]", fillcolor="#399de50c"] ;
34 -> 35 ;
36 [label="gini = 0.169\nsamples = 30\nvalue = [39, 4]", fillcolor="#e58139e5"] ;
35 -> 36 ;
37 [label="gini = 0.13\nsamples = 28\nvalue = [3, 40]", fillcolor="#399de5ec"] ;
35 -> 37 ;
38 [label="dx <= -119.905\ngini = 0.204\nsamples = 393\nvalue = [554, 72]", fillcolor="#e58139de"] ;
34 -> 38 ;
39 [label="gini = 0.0\nsamples = 12\nvalue = [0, 16]", fillcolor="#399de5ff"] ;
38 -> 39 ;
40 [label="gini = 0.167\nsamples = 381\nvalue = [554, 56]", fillcolor="#e58139e5"] ;
38 -> 40 ;
41 [label="zavg <= 222.5\ngini = 0.428\nsamples = 110\nvalue = [57, 127]", fillcolor="#399de58d"] ;
25 -> 41 ;
42 [label="yavg <= 92.0\ngini = 0.494\nsamples = 59\nvalue = [49, 61]", fillcolor="#399de532"] ;
41 -> 42 ;
43 [label="dz <= -19.0\ngini = 0.231\nsamples = 21\nvalue = [6, 39]", fillcolor="#399de5d8"] ;
42 -> 43 ;
44 [label="gini = 0.43\nsamples = 10\nvalue = [5, 11]", fillcolor="#399de58b"] ;
43 -> 44 ;
45 [label="gini = 0.067\nsamples = 11\nvalue = [1, 28]", fillcolor="#399de5f6"] ;
43 -> 45 ;
46 [label="xavg <= 54.856\ngini = 0.448\nsamples = 38\nvalue = [43, 22]", fillcolor="#e581397d"] ;
42 -> 46 ;
47 [label="gini = 0.0\nsamples = 19\nvalue = [28, 0]", fillcolor="#e58139ff"] ;
46 -> 47 ;
48 [label="gini = 0.482\nsamples = 19\nvalue = [15, 22]", fillcolor="#399de551"] ;
46 -> 48 ;
49 [label="dx <= 1.38\ngini = 0.193\nsamples = 51\nvalue = [8, 66]", fillcolor="#399de5e0"] ;
41 -> 49 ;
50 [label="z <= 236.83\ngini = 0.049\nsamples = 28\nvalue = [1, 39]", fillcolor="#399de5f8"] ;
49 -> 50 ;
51 [label="gini = 0.0\nsamples = 20\nvalue = [0, 27]", fillcolor="#399de5ff"] ;
50 -> 51 ;
52 [label="gini = 0.142\nsamples = 8\nvalue = [1, 12]", fillcolor="#399de5ea"] ;
50 -> 52 ;
53 [label="x <= 40.5\ngini = 0.327\nsamples = 23\nvalue = [7, 27]", fillcolor="#399de5bd"] ;
49 -> 53 ;
54 [label="gini = 0.484\nsamples = 11\nvalue = [7, 10]", fillcolor="#399de54d"] ;
53 -> 54 ;
55 [label="gini = 0.0\nsamples = 12\nvalue = [0, 17]", fillcolor="#399de5ff"] ;
53 -> 55 ;
56 [label="zavg <= 97.327\ngini = 0.283\nsamples = 135\nvalue = [37, 180]", fillcolor="#399de5cb"] ;
24 -> 56 ;
57 [label="dy <= -34.524\ngini = 0.054\nsamples = 93\nvalue = [4, 140]", fillcolor="#399de5f8"] ;
56 -> 57 ;
58 [label="gini = 0.397\nsamples = 8\nvalue = [3, 8]", fillcolor="#399de59f"] ;
57 -> 58 ;
59 [label="zavg <= 52.177\ngini = 0.015\nsamples = 85\nvalue = [1, 132]", fillcolor="#399de5fd"] ;
57 -> 59 ;
60 [label="gini = 0.0\nsamples = 65\nvalue = [0, 96]", fillcolor="#399de5ff"] ;
59 -> 60 ;
61 [label="xavg <= 133.567\ngini = 0.053\nsamples = 20\nvalue = [1, 36]", fillcolor="#399de5f8"] ;
59 -> 61 ;
62 [label="gini = 0.0\nsamples = 12\nvalue = [0, 25]", fillcolor="#399de5ff"] ;
61 -> 62 ;
63 [label="gini = 0.153\nsamples = 8\nvalue = [1, 11]", fillcolor="#399de5e8"] ;
61 -> 63 ;
64 [label="y <= 251.129\ngini = 0.495\nsamples = 42\nvalue = [33, 40]", fillcolor="#399de52d"] ;
56 -> 64 ;
65 [label="yavg <= 41.833\ngini = 0.483\nsamples = 27\nvalue = [26, 18]", fillcolor="#e581394e"] ;
64 -> 65 ;
66 [label="gini = 0.472\nsamples = 13\nvalue = [8, 13]", fillcolor="#399de562"] ;
65 -> 66 ;
67 [label="gini = 0.34\nsamples = 14\nvalue = [18, 5]", fillcolor="#e58139b8"] ;
65 -> 67 ;
68 [label="gini = 0.366\nsamples = 15\nvalue = [7, 22]", fillcolor="#399de5ae"] ;
64 -> 68 ;
}
