digraph Tree {
node [shape=box, style="filled, rounded", color="black", fontname=helvetica] ;
edge [fontname=helvetica] ;
0 [label="zavg <= 65.2\ngini = 0.497\nsamples = 1121\nvalue = [829, 958]", fillcolor="#399de522"] ;
1 [label="dy <= 35.246\ngini = 0.389\nsamples = 430\nvalue = [184, 512]", fillcolor="#399de5a3"] ;
0 -> 1 [labeldistance=2.5, labelangle=45, headlabel="True"] ;
2 [label="dz <= -28.334\ngini = 0.459\nsamples = 310\nvalue = [176, 317]", fillcolor="#399de571"] ;
1 -> 2 ;
3 [label="xavg <= 221.422\ngini = 0.045\nsamples = 77\nvalue = [3, 127]", fillcolor="#399de5f9"] ;
2 -> 3 ;
4 [label="gini = 0.0\nsamples = 63\nvalue = [0, 103]", fillcolor="#399de5ff"] ;
3 -> 4 ;
5 [label="gini = 0.198\nsamples = 14\nvalue = [3, 24]", fillcolor="#399de5df"] ;
3 -> 5 ;
6 [label="dy <= -16.1\ngini = 0.499\nsamples = 233\nvalue = [173, 190]", fillcolor="#399de517"] ;
2 -> 6 ;
7 [label="xavg <= 207.35\ngini = 0.267\nsamples = 69\nvalue = [19, 101]", fillcolor="#399de5cf"] ;
6 -> 7 ;
8 [label="y <= 120.57\ngini = 0.088\nsamples = 46\nvalue = [4, 83]", fillcolor="#399de5f3"] ;
7 -> 8 ;
9 [label="gini = 0.0\nsamples = 22\nvalue = [0, 36]", fillcolor="#399de5ff"] ;
8 -> 9 ;
10 [label="gini = 0.145\nsamples = 24\nvalue = [4, 47]", fillcolor="#399de5e9"] ;
8 -> 10 ;
11 [label="z <= 19.283\ngini = 0.496\nsamples = 23\nvalue = [15, 18]", fillcolor="#399de52a"] ;
7 -> 11 ;
12 [label="gini = 0.165\nsamples = 9\nvalue = [1, 10]", fillcolor="#399de5e6"] ;
11 -> 12 ;
13 [label="gini = 0.463\nsamples = 14\nvalue = [14, 8]", fillcolor="#e581396d"] ;
11 -> 13 ;
14 [label="yavg <= 107.723\ngini = 0.464\nsamples = 164\nvalue = [154, 89]", fillcolor="#e581396c"] ;
6 -> 14 ;
15 [label="zavg <= -3.249\ngini = 0.215\nsamples = 70\nvalue = [93, 13]", fillcolor="#e58139db"] ;
14 -> 15 ;
16 [label="gini = 0.459\nsamples = 9\nvalue = [5, 9]", fillcolor="#399de571"] ;
15 -> 16 ;
17 [label="gini = 0.083\nsamples = 61\nvalue = [88, 4]", fillcolor="#e58139f3"] ;
15 -> 17 ;
18 [label="xavg <= 232.513\ngini = 0.494\nsamples = 94\nvalue = [61, 76]", fillcolor="#399de532"] ;
14 -> 18 ;
19 [label="gini = 0.47\nsamples = 82\nvalue = [46, 76]", fillcolor="#399de565"] ;
18 -> 19 ;
20 [label="gini = 0.0\nsamples = 12\nvalue = [15, 0]", fillcolor="#e58139ff"] ;
18 -> 20 ;
21 [label="dx <= 80.0\ngini = 0.076\nsamples = 120\nvalue = [8, 195]", fillcolor="#399de5f5"] ;
1 -> 21 ;
22 [label="gini = 0.0\nsamples = 70\nvalue = [0, 118]", fillcolor="#399de5ff"] ;
21 -> 22 ;
23 [label="zavg <= 23.466\ngini = 0.171\nsamples = 50\nvalue = [8, 77]", fillcolor="#399de5e5"] ;
21 -> 23 ;
24 [label="y <= 195.36\ngini = 0.032\nsamples = 36\nvalue = [1, 60]", fillcolor="#399de5fb"] ;
23 -> 24 ;
25 [label="gini = 0.0\nsamples = 23\nvalue = [0, 41]", fillcolor="#399de5ff"] ;
24 -> 25 ;
26 [label="gini = 0.095\nsamples = 13\nvalue = [1, 19]", fillcolor="#399de5f2"] ;
24 -> 26 ;
27 [label="gini = 0.413\nsamples = 14\nvalue = [7, 17]", fillcolor="#399de596"] ;
23 -> 27 ;
28 [label="yavg <= 40.562\ngini = 0.483\nsamples = 691\nvalue = [645, 446]", fillcolor="#e581394f"] ;
0 -> 28 [labeldistance=2.5, labelangle=-45, headlabel="False"] ;
29 [label="x <= -184.099\ngini = 0.349\nsamples = 192\nvalue = [70, 241]", fillcolor="#399de5b5"] ;
28 -> 29 ;
30 [label="dy <= -17.394\ngini = 0.46\nsamples = 27\nvalue = [25, 14]", fillcolor="#e5813970"] ;
29 -> 30 ;
31 [label="gini = 0.355\nsamples = 10\nvalue = [3, 10]", fillcolor="#399de5b3"] ;
30 -> 31 ;
32 [label="x <= -201.5\ngini = 0.26\nsamples = 17\nvalue = [22, 4]", fillcolor="#e58139d1"] ;
30 -> 32 ;
33 [label="gini = 0.391\nsamples = 9\nvalue = [11, 4]", fillcolor="#e58139a2"] ;
32 -> 33 ;
34 [label="gini = 0.0\nsamples = 8\nvalue = [11, 0]", fillcolor="#e58139ff"] ;
32 -> 34 ;
35 [label="yavg <= -56.833\ngini = 0.276\nsamples = 165\nvalue = [45, 227]", fillcolor="#399de5cc"] ;
29 -> 35 ;
36 [label="y <= -156.8\ngini = 0.436\nsamples = 53\nvalue = [27, 57]", fillcolor="#399de586"] ;
35 -> 36 ;
37 [label="gini = 0.0\nsamples = 19\nvalue = [0, 27]", fillcolor="#399de5ff"] ;
36 -> 37 ;
38 [label="dx <= -47.21\ngini = 0.499\nsamples = 34\nvalue = [27, 30]", fillcolor="#399de519"] ;
36 -> 38 ;
39 [label="gini = 0.0\nsamples = 10\nvalue = [0, 15]", fillcolor="#399de5ff"] ;
38 -> 39 ;
40 [label="gini = 0.459\nsamples = 24\nvalue = [27, 15]", fillcolor="#e5813971"] ;
38 -> 40 ;
41 [label="xavg <= -145.15\ngini = 0.173\nsamples = 112\nvalue = [18, 170]", fillcolor="#399de5e4"] ;
35 -> 41 ;
42 [label="gini = 0.415\nsamples = 12\nvalue = [5, 12]", fillcolor="#399de595"] ;
41 -> 42 ;
43 [label="dy <= -16.881\ngini = 0.14\nsamples = 100\nvalue = [13, 158]", fillcolor="#399de5ea"] ;
41 -> 43 ;
44 [label="gini = 0.32\nsamples = 31\nvalue = [11, 44]", fillcolor="#399de5bf"] ;
43 -> 44 ;
45 [label="gini = 0.034\nsamples = 69\nvalue = [2, 114]", fillcolor="#399de5fb"] ;
43 -> 45 ;
46 [label="dy <= 94.29\ngini = 0.387\nsamples = 499\nvalue = [575, 205]", fillcolor="#e58139a4"] ;
28 -> 46 ;
47 [label="dx <= -189.465\ngini = 0.325\nsamples = 464\nvalue = [570, 146]", fillcolor="#e58139be"] ;
46 -> 47 ;
48 [label="gini = 0.0\nsamples = 16\nvalue = [0, 32]", fillcolor="#399de5ff"] ;
47 -> 48 ;
49 [label="dz <= -64.5\ngini = 0.278\nsamples = 448\nvalue = [570, 114]", fillcolor="#e58139cc"] ;
47 -> 49 ;
50 [label="y <= 125.886\ngini = 0.301\nsamples = 28\nvalue = [7, 31]", fillcolor="#399de5c5"] ;
49 -> 50 ;
51 [label="gini = 0.397\nsamples = 15\nvalue = [6, 16]", fillcolor="#399de59f"] ;
50 -> 51 ;
52 [label="gini = 0.117\nsamples = 13\nvalue = [1, 15]", fillcolor="#399de5ee"] ;
50 -> 52 ;
53 [label="z <= 204.396\ngini = 0.224\nsamples = 420\nvalue = [563, 83]", fillcolor="#e58139d9"] ;
49 -> 53 ;
54 [label="gini = 0.144\nsamples = 357\nvalue = [509, 43]", fillcolor="#e58139e9"] ;
53 -> 54 ;
55 [label="gini = 0.489\nsamples = 63\nvalue = [54, 40]", fillcolor="#e5813942"] ;
53 -> 55 ;
56 [label="x <= 21.353\ngini = 0.144\nsamples = 35\nvalue = [5, 59]", fillcolor="#399de5e9"] ;
46 -> 56 ;
57 [label="gini = 0.408\nsamples = 9\nvalue = [4, 10]", fillcolor="#399de599"] ;
56 -> 57 ;
58 [label="y <= 278.638\ngini = 0.039\nsamples = 26\nvalue = [1, 49]", fillcolor="#399de5fa"] ;
56 -> 58 ;
59 [label="gini = 0.0\nsamples = 17\nvalue = [0, 36]", fillcolor="#399de5ff"] ;
58 -> 59 ;
60 [label="gini = 0.133\nsamples = 9\nvalue = [1, 13]", fillcolor="#399de5eb"] ;
58 -> 60 ;
}